<?xml version="1.0"?>
<opencv_storage>
<cascade>
  <stageType>BOOST</stageType>
  <featureType>HAAR</featureType>
  <height>20</height>
  <width>20</width>
  <stageParams>
    <boostType>GAB</boostType>
    <minHitRate>9.9500000476837158e-01</minHitRate>
    <maxFalseAlarm>5.0000000000000000e-01</maxFalseAlarm>
    <weightTrimRate>9.4999999999999996e-01</weightTrimRate>
    <maxDepth>1</maxDepth>
    <maxWeakCount>100</maxWeakCount></stageParams>
  <featureParams>
    <maxCatCount>0</maxCatCount>
    <featSize>1</featSize>
    <mode>BASIC</mode></featureParams>
  <stageNum>10</stageNum>
  <stages>
    <!-- stage 0 -->
    <_>
      <maxWeakCount>6</maxWeakCount>
      <stageThreshold>-1.1305592060089111e+00</stageThreshold>
      <weakClassifiers>
        <_>
          <internalNodes>
            0 -1 18 -6.8346522748470306e-03</internalNodes>
          <leafValues>
            7.9148936271667480e-01 -7.1707314252853394e-01</leafValues></_>
        <_>
          <internalNodes>
            0 -1 1 5.7231593877077103e-02</internalNodes>
          <leafValues>
            -6.2617379426956177e-01 6.5226900577545166e-01</leafValues></_>
        <_>
          <internalNodes>
            0 -1 81 1.7048619687557220e-02</internalNodes>
          <leafValues>
            -5.4930531978607178e-01 6.5571022033691406e-01</leafValues></_>
        <_>
          <internalNodes>
            0 -1 51 2.4848803877830505e-03</internalNodes>
          <leafValues>
            -5.8543646335601807e-01 5.5101549625396729e-01</leafValues></_>
        <_>
          <internalNodes>
            0 -1 38 -8.9846728369593620e-03</internalNodes>
          <leafValues>
            6.2496125698089600e-01 -4.0057566761970520e-01</leafValues></_>
        <_>
          <internalNodes>
            0 -1 83 -2.1187055855989456e-02</internalNodes>
          <leafValues>
            6.1155331134796143e-01 -4.0850037336349487e-01</leafValues></_></weakClassifiers></_>
    <!-- stage 1 -->
    <_>
      <maxWeakCount>6</maxWeakCount>
      <stageThreshold>-1.1855552196502686e+00</stageThreshold>
      <weakClassifiers>
        <_>
          <internalNodes>
            0 -1 37 -3.3528588712215424e-02</internalNodes>
          <leafValues>
            7.5995576381683350e-01 -5.3139013051986694e-01</leafValues></_>
        <_>
          <internalNodes>
            0 -1 91 1.9923832267522812e-02</internalNodes>
          <leafValues>
            -5.8237916231155396e-01 6.8002855777740479e-01</leafValues></_>
        <_>
          <internalNodes>
            0 -1 41 5.4679773747920990e-02</internalNodes>
          <leafValues>
            -4.7355130314826965e-01 6.2800407409667969e-01</leafValues></_>
        <_>
          <internalNodes>
            0 -1 23 -1.9807392731308937e-02</internalNodes>
          <leafValues>
            5.7623898983001709e-01 -4.0708693861961365e-01</leafValues></_>
        <_>
          <internalNodes>
            0 -1 26 -2.8317621909081936e-03</internalNodes>
          <leafValues>
            4.2904368042945862e-01 -4.9782377481460571e-01</leafValues></_>
        <_>
          <internalNodes>
            0 -1 64 -1.1550186201930046e-02</internalNodes>
          <leafValues>
            3.7980860471725464e-01 -4.6604582667350769e-01</leafValues></_></weakClassifiers></_>
    <!-- stage 2 -->
    <_>
      <maxWeakCount>9</maxWeakCount>
      <stageThreshold>-1.1281844377517700e+00</stageThreshold>
      <weakClassifiers>
        <_>
          <internalNodes>
            0 -1 4 3.0411692336201668e-02</internalNodes>
          <leafValues>
            -4.1983121633529663e-01 7.4086755514144897e-01</leafValues></_>
        <_>
          <internalNodes>
            0 -1 99 5.0324252806603909e-03</internalNodes>
          <leafValues>
            -4.8954343795776367e-01 6.2865185737609863e-01</leafValues></_>
        <_>
          <internalNodes>
            0 -1 53 -7.8866571187973022e-02</internalNodes>
          <leafValues>
            5.6327825784683228e-01 -4.9066174030303955e-01</leafValues></_>
        <_>
          <internalNodes>
            0 -1 77 -1.3583104591816664e-03</internalNodes>
          <leafValues>
            3.2633045315742493e-01 -6.6061860322952271e-01</leafValues></_>
        <_>
          <internalNodes>
            0 -1 42 1.6711022704839706e-02</internalNodes>
          <leafValues>
            -5.2014017105102539e-01 3.6505669355392456e-01</leafValues></_>
        <_>
          <internalNodes>
            0 -1 21 -3.1875062733888626e-02</internalNodes>
          <leafValues>
            5.2904462814331055e-01 -3.6443337798118591e-01</leafValues></_>
        <_>
          <internalNodes>
            0 -1 54 -1.0853242129087448e-02</internalNodes>
          <leafValues>
            2.8533047437667847e-01 -6.0162204504013062e-01</leafValues></_>
        <_>
          <internalNodes>
            0 -1 57 -9.8325125873088837e-03</internalNodes>
          <leafValues>
            4.7060754895210266e-01 -3.2315140962600708e-01</leafValues></_>
        <_>
          <internalNodes>
            0 -1 12 -1.2710036709904671e-02</internalNodes>
          <leafValues>
            -8.6141920089721680e-01 1.6762818396091461e-01</leafValues></_></weakClassifiers></_>
    <!-- stage 3 -->
    <_>
      <maxWeakCount>10</maxWeakCount>
      <stageThreshold>-1.1353131532669067e+00</stageThreshold>
      <weakClassifiers>
        <_>
          <internalNodes>
            0 -1 90 2.6730470359325409e-02</internalNodes>
          <leafValues>
            -3.4631147980690002e-01 7.1809744834899902e-01</leafValues></_>
        <_>
          <internalNodes>
            0 -1 33 1.3833348639309406e-02</internalNodes>
          <leafValues>
            -5.5853366851806641e-01 4.6892303228378296e-01</leafValues></_>
        <_>
          <internalNodes>
            0 -1 3 3.5175047814846039e-02</internalNodes>
          <leafValues>
            -3.9624020457267761e-01 5.0786334276199341e-01</leafValues></_>
        <_>
          <internalNodes>
            0 -1 75 5.6273946538567543e-03</internalNodes>
          <leafValues>
            -7.1831011772155762e-01 3.0446875095367432e-01</leafValues></_>
        <_>
          <internalNodes>
            0 -1 67 4.8302342183887959e-03</internalNodes>
          <leafValues>
            -4.3551409244537354e-01 4.1472557187080383e-01</leafValues></_>
        <_>
          <internalNodes>
            0 -1 30 -9.4436421990394592e-02</internalNodes>
          <leafValues>
            3.7438797950744629e-01 -5.1417493820190430e-01</leafValues></_>
        <_>
          <internalNodes>
            0 -1 56 -7.7765514142811298e-03</internalNodes>
          <leafValues>
            4.1045415401458740e-01 -3.4834232926368713e-01</leafValues></_>
        <_>
          <internalNodes>
            0 -1 36 -1.6392167890444398e-04</internalNodes>
          <leafValues>
            -6.0669690370559692e-01 2.0075100660324097e-01</leafValues></_>
        <_>
          <internalNodes>
            0 -1 101 -2.6167670264840126e-02</internalNodes>
          <leafValues>
            3.6284044384956360e-01 -3.4048014879226685e-01</leafValues></_>
        <_>
          <internalNodes>
            0 -1 16 5.1781345158815384e-02</internalNodes>
          <leafValues>
            -1.6305312514305115e-01 7.0804440975189209e-01</leafValues></_></weakClassifiers></_>
    <!-- stage 4 -->
    <_>
      <maxWeakCount>11</maxWeakCount>
      <stageThreshold>-1.1290067434310913e+00</stageThreshold>
      <weakClassifiers>
        <_>
          <internalNodes>
            0 -1 95 6.9659594446420670e-03</internalNodes>
          <leafValues>
            -5.2536827325820923e-01 5.8449018001556396e-01</leafValues></_>
        <_>
          <internalNodes>
            0 -1 63 -1.4742322266101837e-02</internalNodes>
          <leafValues>
            4.4126665592193604e-01 -5.4908502101898193e-01</leafValues></_>
        <_>
          <internalNodes>
            0 -1 7 5.6418582797050476e-02</internalNodes>
          <leafValues>
            -3.3069720864295959e-01 6.7911118268966675e-01</leafValues></_>
        <_>
          <internalNodes>
            0 -1 29 7.9609453678131104e-03</internalNodes>
          <leafValues>
            -3.2873800396919250e-01 4.9130260944366455e-01</leafValues></_>
        <_>
          <internalNodes>
            0 -1 14 4.9138113856315613e-02</internalNodes>
          <leafValues>
            -3.2924953103065491e-01 6.7070960998535156e-01</leafValues></_>
        <_>
          <internalNodes>
            0 -1 97 5.1480181515216827e-02</internalNodes>
          <leafValues>
            -2.3013977706432343e-01 6.2630021572113037e-01</leafValues></_>
        <_>
          <internalNodes>
            0 -1 45 -3.5529711749404669e-03</internalNodes>
          <leafValues>
            3.7430948019027710e-01 -4.4079315662384033e-01</leafValues></_>
        <_>
          <internalNodes>
            0 -1 47 1.7864249646663666e-02</internalNodes>
          <leafValues>
            -3.1521850824356079e-01 3.5227024555206299e-01</leafValues></_>
        <_>
          <internalNodes>
            0 -1 60 -3.5013202577829361e-02</internalNodes>
          <leafValues>
            3.6232331395149231e-01 -3.2142433524131775e-01</leafValues></_>
        <_>
          <internalNodes>
            0 -1 78 -4.5300837606191635e-02</internalNodes>
          <leafValues>
            4.9442693591117859e-01 -2.5462877750396729e-01</leafValues></_>
        <_>
          <internalNodes>
            0 -1 100 -7.7423109905794263e-04</internalNodes>
          <leafValues>
            -6.8474960327148438e-01 1.9273182749748230e-01</leafValues></_></weakClassifiers></_>
    <!-- stage 5 -->
    <_>
      <maxWeakCount>12</maxWeakCount>
      <stageThreshold>-1.3235993385314941e+00</stageThreshold>
      <weakClassifiers>
        <_>
          <internalNodes>
            0 -1 28 3.6132935434579849e-02</internalNodes>
          <leafValues>
            -3.2524272799491882e-01 6.2260127067565918e-01</leafValues></_>
        <_>
          <internalNodes>
            0 -1 87 4.4622696936130524e-02</internalNodes>
          <leafValues>
            -4.7517278790473938e-01 4.3462702631950378e-01</leafValues></_>
        <_>
          <internalNodes>
            0 -1 10 8.5972845554351807e-03</internalNodes>
          <leafValues>
            -5.4234313964843750e-01 3.4329503774642944e-01</leafValues></_>
        <_>
          <internalNodes>
            0 -1 74 -5.3114658221602440e-03</internalNodes>
          <leafValues>
            2.6582074165344238e-01 -6.4963006973266602e-01</leafValues></_>
        <_>
          <internalNodes>
            0 -1 52 3.9330348372459412e-03</internalNodes>
          <leafValues>
            -5.5762356519699097e-01 2.6198947429656982e-01</leafValues></_>
        <_>
          <internalNodes>
            0 -1 59 -3.4576977486722171e-04</internalNodes>
          <leafValues>
            2.5588631629943848e-01 -5.3594803810119629e-01</leafValues></_>
        <_>
          <internalNodes>
            0 -1 104 -2.0358877256512642e-02</internalNodes>
          <leafValues>
            4.2389705777168274e-01 -3.3004108071327209e-01</leafValues></_>
        <_>
          <internalNodes>
            0 -1 49 -2.2139085456728935e-02</internalNodes>
          <leafValues>
            5.7338607311248779e-01 -2.4488118290901184e-01</leafValues></_>
        <_>
          <internalNodes>
            0 -1 92 2.2407114505767822e-02</internalNodes>
          <leafValues>
            -1.6607090830802917e-01 7.5643771886825562e-01</leafValues></_>
        <_>
          <internalNodes>
            0 -1 55 6.7725065164268017e-03</internalNodes>
          <leafValues>
            -4.3730276823043823e-01 3.6201277375221252e-01</leafValues></_>
        <_>
          <internalNodes>
            0 -1 13 -2.4243738502264023e-02</internalNodes>
          <leafValues>
            6.1989271640777588e-01 -2.1301724016666412e-01</leafValues></_>
        <_>
          <internalNodes>
            0 -1 73 -1.1160207213833928e-03</internalNodes>
          <leafValues>
            3.2885009050369263e-01 -3.0699566006660461e-01</leafValues></_></weakClassifiers></_>
    <!-- stage 6 -->
    <_>
      <maxWeakCount>13</maxWeakCount>
      <stageThreshold>-9.6868163347244263e-01</stageThreshold>
      <weakClassifiers>
        <_>
          <internalNodes>
            0 -1 38 -8.4445290267467499e-03</internalNodes>
          <leafValues>
            6.6377818584442139e-01 -2.5696593523025513e-01</leafValues></_>
        <_>
          <internalNodes>
            0 -1 88 1.2956179678440094e-02</internalNodes>
          <leafValues>
            -5.4135769605636597e-01 3.9011183381080627e-01</leafValues></_>
        <_>
          <internalNodes>
            0 -1 0 4.2613722383975983e-02</internalNodes>
          <leafValues>
            -4.7971707582473755e-01 3.5392126441001892e-01</leafValues></_>
        <_>
          <internalNodes>
            0 -1 58 1.8998371437191963e-02</internalNodes>
          <leafValues>
            -4.9568486213684082e-01 3.0776739120483398e-01</leafValues></_>
        <_>
          <internalNodes>
            0 -1 34 -5.4847453720867634e-03</internalNodes>
          <leafValues>
            2.3346231877803802e-01 -6.1521959304809570e-01</leafValues></_>
        <_>
          <internalNodes>
            0 -1 98 3.6618851125240326e-02</internalNodes>
          <leafValues>
            -2.9193240404129028e-01 4.8348069190979004e-01</leafValues></_>
        <_>
          <internalNodes>
            0 -1 93 -4.7944508492946625e-02</internalNodes>
          <leafValues>
            8.6255109310150146e-01 -1.7308278381824493e-01</leafValues></_>
        <_>
          <internalNodes>
            0 -1 32 -6.4423447474837303e-03</internalNodes>
          <leafValues>
            3.9398029446601868e-01 -2.6913881301879883e-01</leafValues></_>
        <_>
          <internalNodes>
            0 -1 26 -4.7674854286015034e-03</internalNodes>
          <leafValues>
            3.3331644535064697e-01 -3.3690309524536133e-01</leafValues></_>
        <_>
          <internalNodes>
            0 -1 27 -3.9239250123500824e-02</internalNodes>
          <leafValues>
            4.3280103802680969e-01 -2.4987395107746124e-01</leafValues></_>
        <_>
          <internalNodes>
            0 -1 22 -6.8588908761739731e-03</internalNodes>
          <leafValues>
            5.2195185422897339e-01 -2.4006174504756927e-01</leafValues></_>
        <_>
          <internalNodes>
            0 -1 89 1.7263330519199371e-02</internalNodes>
          <leafValues>
            -1.8315090239048004e-01 5.5012184381484985e-01</leafValues></_>
        <_>
          <internalNodes>
            0 -1 44 -1.0256676468998194e-03</internalNodes>
          <leafValues>
            -5.9170389175415039e-01 1.9397796690464020e-01</leafValues></_></weakClassifiers></_>
    <!-- stage 7 -->
    <_>
      <maxWeakCount>14</maxWeakCount>
      <stageThreshold>-1.1539784669876099e+00</stageThreshold>
      <weakClassifiers>
        <_>
          <internalNodes>
            0 -1 86 5.8426796458661556e-03</internalNodes>
          <leafValues>
            -3.3700138330459595e-01 5.8033454418182373e-01</leafValues></_>
        <_>
          <internalNodes>
            0 -1 23 -2.9147429391741753e-02</internalNodes>
          <leafValues>
            4.6300220489501953e-01 -4.0335857868194580e-01</leafValues></_>
        <_>
          <internalNodes>
            0 -1 9 4.8669844865798950e-02</internalNodes>
          <leafValues>
            -6.4148837327957153e-01 2.4334020912647247e-01</leafValues></_>
        <_>
          <internalNodes>
            0 -1 106 -1.2719428166747093e-02</internalNodes>
          <leafValues>
            5.0979846715927124e-01 -2.8000277280807495e-01</leafValues></_>
        <_>
          <internalNodes>
            0 -1 46 -4.8637893050909042e-03</internalNodes>
          <leafValues>
            2.3931811749935150e-01 -5.6130707263946533e-01</leafValues></_>
        <_>
          <internalNodes>
            0 -1 2 4.3128043413162231e-02</internalNodes>
          <leafValues>
            -4.1052195429801941e-01 3.0118215084075928e-01</leafValues></_>
        <_>
          <internalNodes>
            0 -1 69 -1.0854585561901331e-03</internalNodes>
          <leafValues>
            1.5980850160121918e-01 -6.7401450872421265e-01</leafValues></_>
        <_>
          <internalNodes>
            0 -1 76 -4.9504749476909637e-03</internalNodes>
          <leafValues>
            -8.0678027868270874e-01 1.0665469616651535e-01</leafValues></_>
        <_>
          <internalNodes>
            0 -1 57 -7.9982709139585495e-03</internalNodes>
          <leafValues>
            2.9266816377639771e-01 -3.6808571219444275e-01</leafValues></_>
        <_>
          <internalNodes>
            0 -1 103 -2.7373811462894082e-04</internalNodes>
          <leafValues>
            -5.1109683513641357e-01 1.9990603625774384e-01</leafValues></_>
        <_>
          <internalNodes>
            0 -1 17 5.2685827016830444e-02</internalNodes>
          <leafValues>
            -1.5726073086261749e-01 7.6689630746841431e-01</leafValues></_>
        <_>
          <internalNodes>
            0 -1 24 -2.8055366128683090e-02</internalNodes>
          <leafValues>
            8.4122657775878906e-01 -1.1727961897850037e-01</leafValues></_>
        <_>
          <internalNodes>
            0 -1 72 1.2049138545989990e-01</internalNodes>
          <leafValues>
            -8.9577868580818176e-02 7.7436268329620361e-01</leafValues></_>
        <_>
          <internalNodes>
            0 -1 39 5.3087964653968811e-02</internalNodes>
          <leafValues>
            -9.5275342464447021e-02 8.0689239501953125e-01</leafValues></_></weakClassifiers></_>
    <!-- stage 8 -->
    <_>
      <maxWeakCount>17</maxWeakCount>
      <stageThreshold>-1.0514848232269287e+00</stageThreshold>
      <weakClassifiers>
        <_>
          <internalNodes>
            0 -1 43 -6.8629771471023560e-02</internalNodes>
          <leafValues>
            6.0390669107437134e-01 -2.4854142963886261e-01</leafValues></_>
        <_>
          <internalNodes>
            0 -1 6 4.2554646730422974e-02</internalNodes>
          <leafValues>
            -2.6362493634223938e-01 5.9290736913681030e-01</leafValues></_>
        <_>
          <internalNodes>
            0 -1 31 7.2230165824294090e-03</internalNodes>
          <leafValues>
            -4.0642678737640381e-01 3.5679709911346436e-01</leafValues></_>
        <_>
          <internalNodes>
            0 -1 62 -4.6407070476561785e-04</internalNodes>
          <leafValues>
            1.9434730708599091e-01 -6.8266648054122925e-01</leafValues></_>
        <_>
          <internalNodes>
            0 -1 96 6.1554241925477982e-02</internalNodes>
          <leafValues>
            -3.5610973834991455e-01 4.0268248319625854e-01</leafValues></_>
        <_>
          <internalNodes>
            0 -1 36 -7.7141667134128511e-05</internalNodes>
          <leafValues>
            -5.9658014774322510e-01 1.7401038110256195e-01</leafValues></_>
        <_>
          <internalNodes>
            0 -1 105 -1.3217722997069359e-02</internalNodes>
          <leafValues>
            5.8572268486022949e-01 -1.8487969040870667e-01</leafValues></_>
        <_>
          <internalNodes>
            0 -1 84 1.2394741177558899e-02</internalNodes>
          <leafValues>
            -3.2447299361228943e-01 2.8436383605003357e-01</leafValues></_>
        <_>
          <internalNodes>
            0 -1 19 -8.2789152860641479e-02</internalNodes>
          <leafValues>
            7.5545251369476318e-01 -1.1677980422973633e-01</leafValues></_>
        <_>
          <internalNodes>
            0 -1 82 1.1721745133399963e-02</internalNodes>
          <leafValues>
            -2.1645687520503998e-01 5.0393337011337280e-01</leafValues></_>
        <_>
          <internalNodes>
            0 -1 25 2.1666271612048149e-02</internalNodes>
          <leafValues>
            -1.4398996531963348e-01 6.0362380743026733e-01</leafValues></_>
        <_>
          <internalNodes>
            0 -1 102 -1.2998082092963159e-04</internalNodes>
          <leafValues>
            -5.3966885805130005e-01 1.9257184863090515e-01</leafValues></_>
        <_>
          <internalNodes>
            0 -1 40 -5.8074919506907463e-03</internalNodes>
          <leafValues>
            5.5625420808792114e-01 -1.7975844442844391e-01</leafValues></_>
        <_>
          <internalNodes>
            0 -1 80 -1.4772635768167675e-04</internalNodes>
          <leafValues>
            1.8954059481620789e-01 -4.8490917682647705e-01</leafValues></_>
        <_>
          <internalNodes>
            0 -1 65 -5.1786877214908600e-02</internalNodes>
          <leafValues>
            4.6996784210205078e-01 -1.8445695936679840e-01</leafValues></_>
        <_>
          <internalNodes>
            0 -1 68 -3.1341337598860264e-03</internalNodes>
          <leafValues>
            2.2735045850276947e-01 -3.6359435319900513e-01</leafValues></_>
        <_>
          <internalNodes>
            0 -1 15 2.7045708149671555e-02</internalNodes>
          <leafValues>
            -1.4732335507869720e-01 5.7830017805099487e-01</leafValues></_></weakClassifiers></_>
    <!-- stage 9 -->
    <_>
      <maxWeakCount>16</maxWeakCount>
      <stageThreshold>-1.0130785703659058e+00</stageThreshold>
      <weakClassifiers>
        <_>
          <internalNodes>
            0 -1 95 1.3229298405349255e-02</internalNodes>
          <leafValues>
            -3.4650456905364990e-01 5.5239963531494141e-01</leafValues></_>
        <_>
          <internalNodes>
            0 -1 5 3.2650612294673920e-02</internalNodes>
          <leafValues>
            -3.3258631825447083e-01 3.9127045869827271e-01</leafValues></_>
        <_>
          <internalNodes>
            0 -1 71 -3.3445120789110661e-03</internalNodes>
          <leafValues>
            2.4711573123931885e-01 -4.8439693450927734e-01</leafValues></_>
        <_>
          <internalNodes>
            0 -1 8 5.1739681512117386e-03</internalNodes>
          <leafValues>
            -4.2097896337509155e-01 2.5630885362625122e-01</leafValues></_>
        <_>
          <internalNodes>
            0 -1 20 -1.2798515672329813e-04</internalNodes>
          <leafValues>
            -5.0425857305526733e-01 2.0608302950859070e-01</leafValues></_>
        <_>
          <internalNodes>
            0 -1 94 -2.5122698396444321e-02</internalNodes>
          <leafValues>
            7.7764219045639038e-01 -1.5629042685031891e-01</leafValues></_>
        <_>
          <internalNodes>
            0 -1 50 -3.5386644303798676e-02</internalNodes>
          <leafValues>
            3.9335954189300537e-01 -2.9749736189842224e-01</leafValues></_>
        <_>
          <internalNodes>
            0 -1 35 -4.5945206657052040e-03</internalNodes>
          <leafValues>
            3.3817028999328613e-01 -3.2155865430831909e-01</leafValues></_>
        <_>
          <internalNodes>
            0 -1 61 -2.0851084962487221e-02</internalNodes>
          <leafValues>
            -7.8991460800170898e-01 1.2151122093200684e-01</leafValues></_>
        <_>
          <internalNodes>
            0 -1 11 -5.0818335264921188e-02</internalNodes>
          <leafValues>
            -4.8456424474716187e-01 1.7935635149478912e-01</leafValues></_>
        <_>
          <internalNodes>
            0 -1 48 1.1108488251920789e-04</internalNodes>
          <leafValues>
            -5.1676040887832642e-01 1.6133891046047211e-01</leafValues></_>
        <_>
          <internalNodes>
            0 -1 79 -1.5399667900055647e-03</internalNodes>
          <leafValues>
            2.9287180304527283e-01 -2.9177471995353699e-01</leafValues></_>
        <_>
          <internalNodes>
            0 -1 76 -2.6333919959142804e-04</internalNodes>
          <leafValues>
            1.3620720803737640e-01 -6.6457432508468628e-01</leafValues></_>
        <_>
          <internalNodes>
            0 -1 70 -1.1431913822889328e-02</internalNodes>
          <leafValues>
            -8.0055940151214600e-01 8.5630297660827637e-02</leafValues></_>
        <_>
          <internalNodes>
            0 -1 66 -2.0854246031376533e-05</internalNodes>
          <leafValues>
            1.6652882099151611e-01 -4.4463294744491577e-01</leafValues></_>
        <_>
          <internalNodes>
            0 -1 85 -2.1592557430267334e-02</internalNodes>
          <leafValues>
            7.1392416954040527e-01 -1.3017451763153076e-01</leafValues></_></weakClassifiers></_></stages>
  <features>
    <_>
      <rects>
        <_>
          0 2 6 17 -1.</_>
        <_>
          3 2 3 17 2.</_></rects>
      <tilted>0</tilted></_>
    <_>
      <rects>
        <_>
          0 3 9 14 -1.</_>
        <_>
          3 3 3 14 3.</_></rects>
      <tilted>0</tilted></_>
    <_>
      <rects>
        <_>
          0 3 6 15 -1.</_>
        <_>
          3 3 3 15 2.</_></rects>
      <tilted>0</tilted></_>
    <_>
      <rects>
        <_>
          0 5 4 12 -1.</_>
        <_>
          2 5 2 12 2.</_></rects>
      <tilted>0</tilted></_>
    <_>
      <rects>
        <_>
          0 6 9 3 -1.</_>
        <_>
          3 6 3 3 3.</_></rects>
      <tilted>0</tilted></_>
    <_>
      <rects>
        <_>
          0 7 4 9 -1.</_>
        <_>
          2 7 2 9 2.</_></rects>
      <tilted>0</tilted></_>
    <_>
      <rects>
        <_>
          0 8 6 5 -1.</_>
        <_>
          2 8 2 5 3.</_></rects>
      <tilted>0</tilted></_>
    <_>
      <rects>
        <_>
          0 8 6 8 -1.</_>
        <_>
          2 8 2 8 3.</_></rects>
      <tilted>0</tilted></_>
    <_>
      <rects>
        <_>
          1 0 17 2 -1.</_>
        <_>
          1 1 17 1 2.</_></rects>
      <tilted>0</tilted></_>
    <_>
      <rects>
        <_>
          1 0 17 12 -1.</_>
        <_>
          1 4 17 4 3.</_></rects>
      <tilted>0</tilted></_>
    <_>
      <rects>
        <_>
          1 7 6 2 -1.</_>
        <_>
          3 7 2 2 3.</_></rects>
      <tilted>0</tilted></_>
    <_>
      <rects>
        <_>
          1 9 18 7 -1.</_>
        <_>
          10 9 9 7 2.</_></rects>
      <tilted>0</tilted></_>
    <_>
      <rects>
        <_>
          2 4 17 2 -1.</_>
        <_>
          2 5 17 1 2.</_></rects>
      <tilted>0</tilted></_>
    <_>
      <rects>
        <_>
          2 5 10 4 -1.</_>
        <_>
          2 5 5 2 2.</_>
        <_>
          7 7 5 2 2.</_></rects>
      <tilted>0</tilted></_>
    <_>
      <rects>
        <_>
          2 8 6 7 -1.</_>
        <_>
          4 8 2 7 3.</_></rects>
      <tilted>0</tilted></_>
    <_>
      <rects>
        <_>
          2 9 4 5 -1.</_>
        <_>
          4 9 2 5 2.</_></rects>
      <tilted>0</tilted></_>
    <_>
      <rects>
        <_>
          2 9 6 5 -1.</_>
        <_>
          4 9 2 5 3.</_></rects>
      <tilted>0</tilted></_>
    <_>
      <rects>
        <_>
          2 15 9 3 -1.</_>
        <_>
          5 15 3 3 3.</_></rects>
      <tilted>0</tilted></_>
    <_>
      <rects>
        <_>
          3 3 8 4 -1.</_>
        <_>
          3 3 4 2 2.</_>
        <_>
          7 5 4 2 2.</_></rects>
      <tilted>0</tilted></_>
    <_>
      <rects>
        <_>
          3 3 8 10 -1.</_>
        <_>
          3 3 4 5 2.</_>
        <_>
          7 8 4 5 2.</_></rects>
      <tilted>0</tilted></_>
    <_>
      <rects>
        <_>
          3 7 1 3 -1.</_>
        <_>
          3 8 1 1 3.</_></rects>
      <tilted>0</tilted></_>
    <_>
      <rects>
        <_>
          3 7 4 9 -1.</_>
        <_>
          5 7 2 9 2.</_></rects>
      <tilted>0</tilted></_>
    <_>
      <rects>
        <_>
          3 8 2 6 -1.</_>
        <_>
          4 8 1 6 2.</_></rects>
      <tilted>0</tilted></_>
    <_>
      <rects>
        <_>
          3 8 4 7 -1.</_>
        <_>
          5 8 2 7 2.</_></rects>
      <tilted>0</tilted></_>
    <_>
      <rects>
        <_>
          3 9 4 10 -1.</_>
        <_>
          3 9 2 5 2.</_>
        <_>
          5 14 2 5 2.</_></rects>
      <tilted>0</tilted></_>
    <_>
      <rects>
        <_>
          3 11 4 6 -1.</_>
        <_>
          3 11 2 3 2.</_>
        <_>
          5 14 2 3 2.</_></rects>
      <tilted>0</tilted></_>
    <_>
      <rects>
        <_>
          3 18 12 2 -1.</_>
        <_>
          3 19 12 1 2.</_></rects>
      <tilted>0</tilted></_>
    <_>
      <rects>
        <_>
          4 0 4 14 -1.</_>
        <_>
          4 0 2 7 2.</_>
        <_>
          6 7 2 7 2.</_></rects>
      <tilted>0</tilted></_>
    <_>
      <rects>
        <_>
          4 0 4 12 -1.</_>
        <_>
          4 4 4 4 3.</_></rects>
      <tilted>0</tilted></_>
    <_>
      <rects>
        <_>
          4 0 12 2 -1.</_>
        <_>
          4 1 12 1 2.</_></rects>
      <tilted>0</tilted></_>
    <_>
      <rects>
        <_>
          4 1 12 16 -1.</_>
        <_>
          8 1 4 16 3.</_></rects>
      <tilted>0</tilted></_>
    <_>
      <rects>
        <_>
          4 1 10 2 -1.</_>
        <_>
          4 2 10 1 2.</_></rects>
      <tilted>0</tilted></_>
    <_>
      <rects>
        <_>
          4 2 9 2 -1.</_>
        <_>
          7 2 3 2 3.</_></rects>
      <tilted>0</tilted></_>
    <_>
      <rects>
        <_>
          4 2 3 9 -1.</_>
        <_>
          4 5 3 3 3.</_></rects>
      <tilted>0</tilted></_>
    <_>
      <rects>
        <_>
          4 3 6 4 -1.</_>
        <_>
          4 3 3 2 2.</_>
        <_>
          7 5 3 2 2.</_></rects>
      <tilted>0</tilted></_>
    <_>
      <rects>
        <_>
          4 4 8 1 -1.</_>
        <_>
          8 4 4 1 2.</_></rects>
      <tilted>0</tilted></_>
    <_>
      <rects>
        <_>
          4 5 1 2 -1.</_>
        <_>
          4 6 1 1 2.</_></rects>
      <tilted>0</tilted></_>
    <_>
      <rects>
        <_>
          4 5 12 3 -1.</_>
        <_>
          8 5 4 3 3.</_></rects>
      <tilted>0</tilted></_>
    <_>
      <rects>
        <_>
          4 7 2 9 -1.</_>
        <_>
          5 7 1 9 2.</_></rects>
      <tilted>0</tilted></_>
    <_>
      <rects>
        <_>
          4 7 4 12 -1.</_>
        <_>
          4 7 2 6 2.</_>
        <_>
          6 13 2 6 2.</_></rects>
      <tilted>0</tilted></_>
    <_>
      <rects>
        <_>
          5 0 6 2 -1.</_>
        <_>
          5 0 3 1 2.</_>
        <_>
          8 1 3 1 2.</_></rects>
      <tilted>0</tilted></_>
    <_>
      <rects>
        <_>
          5 0 8 9 -1.</_>
        <_>
          5 3 8 3 3.</_></rects>
      <tilted>0</tilted></_>
    <_>
      <rects>
        <_>
          5 0 11 4 -1.</_>
        <_>
          5 2 11 2 2.</_></rects>
      <tilted>0</tilted></_>
    <_>
      <rects>
        <_>
          5 3 11 8 -1.</_>
        <_>
          5 7 11 4 2.</_></rects>
      <tilted>0</tilted></_>
    <_>
      <rects>
        <_>
          5 4 2 2 -1.</_>
        <_>
          5 5 2 1 2.</_></rects>
      <tilted>0</tilted></_>
    <_>
      <rects>
        <_>
          5 6 4 1 -1.</_>
        <_>
          7 6 2 1 2.</_></rects>
      <tilted>0</tilted></_>
    <_>
      <rects>
        <_>
          5 6 4 2 -1.</_>
        <_>
          7 6 2 2 2.</_></rects>
      <tilted>0</tilted></_>
    <_>
      <rects>
        <_>
          5 14 9 6 -1.</_>
        <_>
          5 16 9 2 3.</_></rects>
      <tilted>0</tilted></_>
    <_>
      <rects>
        <_>
          5 14 11 6 -1.</_>
        <_>
          5 16 11 2 3.</_></rects>
      <tilted>0</tilted></_>
    <_>
      <rects>
        <_>
          5 15 9 2 -1.</_>
        <_>
          8 15 3 2 3.</_></rects>
      <tilted>0</tilted></_>
    <_>
      <rects>
        <_>
          5 15 12 4 -1.</_>
        <_>
          9 15 4 4 3.</_></rects>
      <tilted>0</tilted></_>
    <_>
      <rects>
        <_>
          6 1 8 2 -1.</_>
        <_>
          6 2 8 1 2.</_></rects>
      <tilted>0</tilted></_>
    <_>
      <rects>
        <_>
          6 1 10 2 -1.</_>
        <_>
          6 2 10 1 2.</_></rects>
      <tilted>0</tilted></_>
    <_>
      <rects>
        <_>
          6 2 8 12 -1.</_>
        <_>
          6 8 8 6 2.</_></rects>
      <tilted>0</tilted></_>
    <_>
      <rects>
        <_>
          6 5 9 2 -1.</_>
        <_>
          9 5 3 2 3.</_></rects>
      <tilted>0</tilted></_>
    <_>
      <rects>
        <_>
          6 14 9 6 -1.</_>
        <_>
          6 16 9 2 3.</_></rects>
      <tilted>0</tilted></_>
    <_>
      <rects>
        <_>
          6 18 9 2 -1.</_>
        <_>
          6 19 9 1 2.</_></rects>
      <tilted>0</tilted></_>
    <_>
      <rects>
        <_>
          6 18 13 2 -1.</_>
        <_>
          6 19 13 1 2.</_></rects>
      <tilted>0</tilted></_>
    <_>
      <rects>
        <_>
          7 0 12 4 -1.</_>
        <_>
          7 2 12 2 2.</_></rects>
      <tilted>0</tilted></_>
    <_>
      <rects>
        <_>
          7 1 6 5 -1.</_>
        <_>
          9 1 2 5 3.</_></rects>
      <tilted>0</tilted></_>
    <_>
      <rects>
        <_>
          7 1 9 7 -1.</_>
        <_>
          10 1 3 7 3.</_></rects>
      <tilted>0</tilted></_>
    <_>
      <rects>
        <_>
          7 3 6 3 -1.</_>
        <_>
          9 3 2 3 3.</_></rects>
      <tilted>0</tilted></_>
    <_>
      <rects>
        <_>
          7 4 6 3 -1.</_>
        <_>
          9 4 2 3 3.</_></rects>
      <tilted>0</tilted></_>
    <_>
      <rects>
        <_>
          7 4 7 4 -1.</_>
        <_>
          7 6 7 2 2.</_></rects>
      <tilted>0</tilted></_>
    <_>
      <rects>
        <_>
          7 5 9 2 -1.</_>
        <_>
          10 5 3 2 3.</_></rects>
      <tilted>0</tilted></_>
    <_>
      <rects>
        <_>
          7 5 7 8 -1.</_>
        <_>
          7 9 7 4 2.</_></rects>
      <tilted>0</tilted></_>
    <_>
      <rects>
        <_>
          8 1 6 6 -1.</_>
        <_>
          10 1 2 6 3.</_></rects>
      <tilted>0</tilted></_>
    <_>
      <rects>
        <_>
          8 1 6 2 -1.</_>
        <_>
          8 2 6 1 2.</_></rects>
      <tilted>0</tilted></_>
    <_>
      <rects>
        <_>
          8 4 6 2 -1.</_>
        <_>
          10 4 2 2 3.</_></rects>
      <tilted>0</tilted></_>
    <_>
      <rects>
        <_>
          8 4 4 2 -1.</_>
        <_>
          8 5 4 1 2.</_></rects>
      <tilted>0</tilted></_>
    <_>
      <rects>
        <_>
          8 4 10 2 -1.</_>
        <_>
          8 5 10 1 2.</_></rects>
      <tilted>0</tilted></_>
    <_>
      <rects>
        <_>
          8 5 6 2 -1.</_>
        <_>
          8 6 6 1 2.</_></rects>
      <tilted>0</tilted></_>
    <_>
      <rects>
        <_>
          8 14 12 6 -1.</_>
        <_>
          12 14 4 6 3.</_></rects>
      <tilted>0</tilted></_>
    <_>
      <rects>
        <_>
          9 3 2 2 -1.</_>
        <_>
          9 4 2 1 2.</_></rects>
      <tilted>0</tilted></_>
    <_>
      <rects>
        <_>
          9 3 3 4 -1.</_>
        <_>
          9 5 3 2 2.</_></rects>
      <tilted>0</tilted></_>
    <_>
      <rects>
        <_>
          9 3 8 4 -1.</_>
        <_>
          9 3 4 2 2.</_>
        <_>
          13 5 4 2 2.</_></rects>
      <tilted>0</tilted></_>
    <_>
      <rects>
        <_>
          9 4 2 2 -1.</_>
        <_>
          9 5 2 1 2.</_></rects>
      <tilted>0</tilted></_>
    <_>
      <rects>
        <_>
          9 4 4 2 -1.</_>
        <_>
          9 5 4 1 2.</_></rects>
      <tilted>0</tilted></_>
    <_>
      <rects>
        <_>
          9 4 4 14 -1.</_>
        <_>
          9 11 4 7 2.</_></rects>
      <tilted>0</tilted></_>
    <_>
      <rects>
        <_>
          10 0 2 3 -1.</_>
        <_>
          10 1 2 1 3.</_></rects>
      <tilted>0</tilted></_>
    <_>
      <rects>
        <_>
          10 4 1 2 -1.</_>
        <_>
          10 5 1 1 2.</_></rects>
      <tilted>0</tilted></_>
    <_>
      <rects>
        <_>
          11 6 6 3 -1.</_>
        <_>
          14 6 3 3 2.</_></rects>
      <tilted>0</tilted></_>
    <_>
      <rects>
        <_>
          11 11 6 6 -1.</_>
        <_>
          11 11 3 3 2.</_>
        <_>
          14 14 3 3 2.</_></rects>
      <tilted>0</tilted></_>
    <_>
      <rects>
        <_>
          12 3 8 4 -1.</_>
        <_>
          16 3 4 4 2.</_></rects>
      <tilted>0</tilted></_>
    <_>
      <rects>
        <_>
          12 4 6 4 -1.</_>
        <_>
          14 4 2 4 3.</_></rects>
      <tilted>0</tilted></_>
    <_>
      <rects>
        <_>
          12 5 6 3 -1.</_>
        <_>
          15 5 3 3 2.</_></rects>
      <tilted>0</tilted></_>
    <_>
      <rects>
        <_>
          12 6 4 2 -1.</_>
        <_>
          14 6 2 2 2.</_></rects>
      <tilted>0</tilted></_>
    <_>
      <rects>
        <_>
          12 7 6 9 -1.</_>
        <_>
          15 7 3 9 2.</_></rects>
      <tilted>0</tilted></_>
    <_>
      <rects>
        <_>
          13 5 6 4 -1.</_>
        <_>
          15 5 2 4 3.</_></rects>
      <tilted>0</tilted></_>
    <_>
      <rects>
        <_>
          13 6 4 14 -1.</_>
        <_>
          13 6 2 7 2.</_>
        <_>
          15 13 2 7 2.</_></rects>
      <tilted>0</tilted></_>
    <_>
      <rects>
        <_>
          13 6 4 10 -1.</_>
        <_>
          15 6 2 10 2.</_></rects>
      <tilted>0</tilted></_>
    <_>
      <rects>
        <_>
          13 7 4 9 -1.</_>
        <_>
          15 7 2 9 2.</_></rects>
      <tilted>0</tilted></_>
    <_>
      <rects>
        <_>
          13 9 4 8 -1.</_>
        <_>
          13 9 2 4 2.</_>
        <_>
          15 13 2 4 2.</_></rects>
      <tilted>0</tilted></_>
    <_>
      <rects>
        <_>
          13 9 4 10 -1.</_>
        <_>
          13 9 2 5 2.</_>
        <_>
          15 14 2 5 2.</_></rects>
      <tilted>0</tilted></_>
    <_>
      <rects>
        <_>
          13 11 4 6 -1.</_>
        <_>
          13 11 2 3 2.</_>
        <_>
          15 14 2 3 2.</_></rects>
      <tilted>0</tilted></_>
    <_>
      <rects>
        <_>
          14 2 3 9 -1.</_>
        <_>
          14 5 3 3 3.</_></rects>
      <tilted>0</tilted></_>
    <_>
      <rects>
        <_>
          14 5 6 12 -1.</_>
        <_>
          16 5 2 12 3.</_></rects>
      <tilted>0</tilted></_>
    <_>
      <rects>
        <_>
          14 7 6 8 -1.</_>
        <_>
          16 7 2 8 3.</_></rects>
      <tilted>0</tilted></_>
    <_>
      <rects>
        <_>
          14 7 4 9 -1.</_>
        <_>
          16 7 2 9 2.</_></rects>
      <tilted>0</tilted></_>
    <_>
      <rects>
        <_>
          14 8 6 1 -1.</_>
        <_>
          16 8 2 1 3.</_></rects>
      <tilted>0</tilted></_>
    <_>
      <rects>
        <_>
          15 5 2 2 -1.</_>
        <_>
          15 6 2 1 2.</_></rects>
      <tilted>0</tilted></_>
    <_>
      <rects>
        <_>
          16 0 4 18 -1.</_>
        <_>
          18 0 2 18 2.</_></rects>
      <tilted>0</tilted></_>
    <_>
      <rects>
        <_>
          16 5 1 2 -1.</_>
        <_>
          16 6 1 1 2.</_></rects>
      <tilted>0</tilted></_>
    <_>
      <rects>
        <_>
          16 6 1 2 -1.</_>
        <_>
          16 7 1 1 2.</_></rects>
      <tilted>0</tilted></_>
    <_>
      <rects>
        <_>
          16 6 4 6 -1.</_>
        <_>
          18 6 2 6 2.</_></rects>
      <tilted>0</tilted></_>
    <_>
      <rects>
        <_>
          16 10 1 8 -1.</_>
        <_>
          16 14 1 4 2.</_></rects>
      <tilted>0</tilted></_>
    <_>
      <rects>
        <_>
          18 6 2 10 -1.</_>
        <_>
          19 6 1 10 2.</_></rects>
      <tilted>0</tilted></_></features></cascade>
</opencv_storage>
