<?xml version="1.0"?>
<opencv_storage>
<stage6>
  <maxWeakCount>13</maxWeakCount>
  <stageThreshold>-9.6868163347244263e-01</stageThreshold>
  <weakClassifiers>
    <_>
      <internalNodes>
        0 -1 31615 -8.4445290267467499e-03</internalNodes>
      <leafValues>
        6.6377818584442139e-01 -2.5696593523025513e-01</leafValues></_>
    <_>
      <internalNodes>
        0 -1 69858 1.2956179678440094e-02</internalNodes>
      <leafValues>
        -5.4135769605636597e-01 3.9011183381080627e-01</leafValues></_>
    <_>
      <internalNodes>
        0 -1 1610 4.2613722383975983e-02</internalNodes>
      <leafValues>
        -4.7971707582473755e-01 3.5392126441001892e-01</leafValues></_>
    <_>
      <internalNodes>
        0 -1 45585 1.8998371437191963e-02</internalNodes>
      <leafValues>
        -4.9568486213684082e-01 3.0776739120483398e-01</leafValues></_>
    <_>
      <internalNodes>
        0 -1 29872 -5.4847453720867634e-03</internalNodes>
      <leafValues>
        2.3346231877803802e-01 -6.1521959304809570e-01</leafValues></_>
    <_>
      <internalNodes>
        0 -1 72610 3.6618851125240326e-02</internalNodes>
      <leafValues>
        -2.9193240404129028e-01 4.8348069190979004e-01</leafValues></_>
    <_>
      <internalNodes>
        0 -1 70498 -4.7944508492946625e-02</internalNodes>
      <leafValues>
        8.6255109310150146e-01 -1.7308278381824493e-01</leafValues></_>
    <_>
      <internalNodes>
        0 -1 29334 -6.4423447474837303e-03</internalNodes>
      <leafValues>
        3.9398029446601868e-01 -2.6913881301879883e-01</leafValues></_>
    <_>
      <internalNodes>
        0 -1 28033 -4.7674854286015034e-03</internalNodes>
      <leafValues>
        3.3331644535064697e-01 -3.3690309524536133e-01</leafValues></_>
    <_>
      <internalNodes>
        0 -1 28151 -3.9239250123500824e-02</internalNodes>
      <leafValues>
        4.3280103802680969e-01 -2.4987395107746124e-01</leafValues></_>
    <_>
      <internalNodes>
        0 -1 25788 -6.8588908761739731e-03</internalNodes>
      <leafValues>
        5.2195185422897339e-01 -2.4006174504756927e-01</leafValues></_>
    <_>
      <internalNodes>
        0 -1 70049 1.7263330519199371e-02</internalNodes>
      <leafValues>
        -1.8315090239048004e-01 5.5012184381484985e-01</leafValues></_>
    <_>
      <internalNodes>
        0 -1 36269 -1.0256676468998194e-03</internalNodes>
      <leafValues>
        -5.9170389175415039e-01 1.9397796690464020e-01</leafValues></_></weakClassifiers></stage6>
</opencv_storage>
