<?xml version="1.0"?>
<opencv_storage>
<stage7>
  <maxWeakCount>14</maxWeakCount>
  <stageThreshold>-1.1539784669876099e+00</stageThreshold>
  <weakClassifiers>
    <_>
      <internalNodes>
        0 -1 67299 5.8426796458661556e-03</internalNodes>
      <leafValues>
        -3.3700138330459595e-01 5.8033454418182373e-01</leafValues></_>
    <_>
      <internalNodes>
        0 -1 25832 -2.9147429391741753e-02</internalNodes>
      <leafValues>
        4.6300220489501953e-01 -4.0335857868194580e-01</leafValues></_>
    <_>
      <internalNodes>
        0 -1 8273 4.8669844865798950e-02</internalNodes>
      <leafValues>
        -6.4148837327957153e-01 2.4334020912647247e-01</leafValues></_>
    <_>
      <internalNodes>
        0 -1 78012 -1.2719428166747093e-02</internalNodes>
      <leafValues>
        5.0979846715927124e-01 -2.8000277280807495e-01</leafValues></_>
    <_>
      <internalNodes>
        0 -1 37118 -4.8637893050909042e-03</internalNodes>
      <leafValues>
        2.3931811749935150e-01 -5.6130707263946533e-01</leafValues></_>
    <_>
      <internalNodes>
        0 -1 2271 4.3128043413162231e-02</internalNodes>
      <leafValues>
        -4.1052195429801941e-01 3.0118215084075928e-01</leafValues></_>
    <_>
      <internalNodes>
        0 -1 51790 -1.0854585561901331e-03</internalNodes>
      <leafValues>
        1.5980850160121918e-01 -6.7401450872421265e-01</leafValues></_>
    <_>
      <internalNodes>
        0 -1 56097 -4.9504749476909637e-03</internalNodes>
      <leafValues>
        -8.0678027868270874e-01 1.0665469616651535e-01</leafValues></_>
    <_>
      <internalNodes>
        0 -1 45134 -7.9982709139585495e-03</internalNodes>
      <leafValues>
        2.9266816377639771e-01 -3.6808571219444275e-01</leafValues></_>
    <_>
      <internalNodes>
        0 -1 75924 -2.7373811462894082e-04</internalNodes>
      <leafValues>
        -5.1109683513641357e-01 1.9990603625774384e-01</leafValues></_>
    <_>
      <internalNodes>
        0 -1 21350 5.2685827016830444e-02</internalNodes>
      <leafValues>
        -1.5726073086261749e-01 7.6689630746841431e-01</leafValues></_>
    <_>
      <internalNodes>
        0 -1 26195 -2.8055366128683090e-02</internalNodes>
      <leafValues>
        8.4122657775878906e-01 -1.1727961897850037e-01</leafValues></_>
    <_>
      <internalNodes>
        0 -1 54269 1.2049138545989990e-01</internalNodes>
      <leafValues>
        -8.9577868580818176e-02 7.7436268329620361e-01</leafValues></_>
    <_>
      <internalNodes>
        0 -1 31652 5.3087964653968811e-02</internalNodes>
      <leafValues>
        -9.5275342464447021e-02 8.0689239501953125e-01</leafValues></_></weakClassifiers></stage7>
</opencv_storage>
