<?xml version="1.0"?>
<opencv_storage>
<stage5>
  <maxWeakCount>12</maxWeakCount>
  <stageThreshold>-1.3235993385314941e+00</stageThreshold>
  <weakClassifiers>
    <_>
      <internalNodes>
        0 -1 28268 3.6132935434579849e-02</internalNodes>
      <leafValues>
        -3.2524272799491882e-01 6.2260127067565918e-01</leafValues></_>
    <_>
      <internalNodes>
        0 -1 67556 4.4622696936130524e-02</internalNodes>
      <leafValues>
        -4.7517278790473938e-01 4.3462702631950378e-01</leafValues></_>
    <_>
      <internalNodes>
        0 -1 11781 8.5972845554351807e-03</internalNodes>
      <leafValues>
        -5.4234313964843750e-01 3.4329503774642944e-01</leafValues></_>
    <_>
      <internalNodes>
        0 -1 55840 -5.3114658221602440e-03</internalNodes>
      <leafValues>
        2.6582074165344238e-01 -6.4963006973266602e-01</leafValues></_>
    <_>
      <internalNodes>
        0 -1 40776 3.9330348372459412e-03</internalNodes>
      <leafValues>
        -5.5762356519699097e-01 2.6198947429656982e-01</leafValues></_>
    <_>
      <internalNodes>
        0 -1 45699 -3.4576977486722171e-04</internalNodes>
      <leafValues>
        2.5588631629943848e-01 -5.3594803810119629e-01</leafValues></_>
    <_>
      <internalNodes>
        0 -1 75988 -2.0358877256512642e-02</internalNodes>
      <leafValues>
        4.2389705777168274e-01 -3.3004108071327209e-01</leafValues></_>
    <_>
      <internalNodes>
        0 -1 39535 -2.2139085456728935e-02</internalNodes>
      <leafValues>
        5.7338607311248779e-01 -2.4488118290901184e-01</leafValues></_>
    <_>
      <internalNodes>
        0 -1 70494 2.2407114505767822e-02</internalNodes>
      <leafValues>
        -1.6607090830802917e-01 7.5643771886825562e-01</leafValues></_>
    <_>
      <internalNodes>
        0 -1 44787 6.7725065164268017e-03</internalNodes>
      <leafValues>
        -4.3730276823043823e-01 3.6201277375221252e-01</leafValues></_>
    <_>
      <internalNodes>
        0 -1 18014 -2.4243738502264023e-02</internalNodes>
      <leafValues>
        6.1989271640777588e-01 -2.1301724016666412e-01</leafValues></_>
    <_>
      <internalNodes>
        0 -1 55780 -1.1160207213833928e-03</internalNodes>
      <leafValues>
        3.2885009050369263e-01 -3.0699566006660461e-01</leafValues></_></weakClassifiers></stage5>
</opencv_storage>
