<?xml version="1.0"?>
<opencv_storage>
<stage1>
  <maxWeakCount>6</maxWeakCount>
  <stageThreshold>-1.1855552196502686e+00</stageThreshold>
  <weakClassifiers>
    <_>
      <internalNodes>
        0 -1 30885 -3.3528588712215424e-02</internalNodes>
      <leafValues>
        7.5995576381683350e-01 -5.3139013051986694e-01</leafValues></_>
    <_>
      <internalNodes>
        0 -1 70214 1.9923832267522812e-02</internalNodes>
      <leafValues>
        -5.8237916231155396e-01 6.8002855777740479e-01</leafValues></_>
    <_>
      <internalNodes>
        0 -1 34617 5.4679773747920990e-02</internalNodes>
      <leafValues>
        -4.7355130314826965e-01 6.2800407409667969e-01</leafValues></_>
    <_>
      <internalNodes>
        0 -1 25832 -1.9807392731308937e-02</internalNodes>
      <leafValues>
        5.7623898983001709e-01 -4.0708693861961365e-01</leafValues></_>
    <_>
      <internalNodes>
        0 -1 28033 -2.8317621909081936e-03</internalNodes>
      <leafValues>
        4.2904368042945862e-01 -4.9782377481460571e-01</leafValues></_>
    <_>
      <internalNodes>
        0 -1 47352 -1.1550186201930046e-02</internalNodes>
      <leafValues>
        3.7980860471725464e-01 -4.6604582667350769e-01</leafValues></_></weakClassifiers></stage1>
</opencv_storage>
