<?xml version="1.0"?>
<opencv_storage>
<stage2>
  <maxWeakCount>9</maxWeakCount>
  <stageThreshold>-1.1281844377517700e+00</stageThreshold>
  <weakClassifiers>
    <_>
      <internalNodes>
        0 -1 3974 3.0411692336201668e-02</internalNodes>
      <leafValues>
        -4.1983121633529663e-01 7.4086755514144897e-01</leafValues></_>
    <_>
      <internalNodes>
        0 -1 72721 5.0324252806603909e-03</internalNodes>
      <leafValues>
        -4.8954343795776367e-01 6.2865185737609863e-01</leafValues></_>
    <_>
      <internalNodes>
        0 -1 41227 -7.8866571187973022e-02</internalNodes>
      <leafValues>
        5.6327825784683228e-01 -4.9066174030303955e-01</leafValues></_>
    <_>
      <internalNodes>
        0 -1 56203 -1.3583104591816664e-03</internalNodes>
      <leafValues>
        3.2633045315742493e-01 -6.6061860322952271e-01</leafValues></_>
    <_>
      <internalNodes>
        0 -1 34662 1.6711022704839706e-02</internalNodes>
      <leafValues>
        -5.2014017105102539e-01 3.6505669355392456e-01</leafValues></_>
    <_>
      <internalNodes>
        0 -1 25451 -3.1875062733888626e-02</internalNodes>
      <leafValues>
        5.2904462814331055e-01 -3.6443337798118591e-01</leafValues></_>
    <_>
      <internalNodes>
        0 -1 42266 -1.0853242129087448e-02</internalNodes>
      <leafValues>
        2.8533047437667847e-01 -6.0162204504013062e-01</leafValues></_>
    <_>
      <internalNodes>
        0 -1 45134 -9.8325125873088837e-03</internalNodes>
      <leafValues>
        4.7060754895210266e-01 -3.2315140962600708e-01</leafValues></_>
    <_>
      <internalNodes>
        0 -1 17783 -1.2710036709904671e-02</internalNodes>
      <leafValues>
        -8.6141920089721680e-01 1.6762818396091461e-01</leafValues></_></weakClassifiers></stage2>
</opencv_storage>
