<?xml version="1.0"?>
<opencv_storage>
<stage2>
  <maxWeakCount>8</maxWeakCount>
  <stageThreshold>-1.1457085609436035e+00</stageThreshold>
  <weakClassifiers>
    <_>
      <internalNodes>
        0 -1 65234 3.2997815869748592e-03</internalNodes>
      <leafValues>
        -4.8914432525634766e-01 6.6927492618560791e-01</leafValues></_>
    <_>
      <internalNodes>
        0 -1 45954 5.1960382610559464e-02</internalNodes>
      <leafValues>
        -4.5465633273124695e-01 5.9835726022720337e-01</leafValues></_>
    <_>
      <internalNodes>
        0 -1 49373 -1.0845198994502425e-03</internalNodes>
      <leafValues>
        4.0567556023597717e-01 -6.6288203001022339e-01</leafValues></_>
    <_>
      <internalNodes>
        0 -1 70155 1.8807030282914639e-03</internalNodes>
      <leafValues>
        -4.9011117219924927e-01 3.7875401973724365e-01</leafValues></_>
    <_>
      <internalNodes>
        0 -1 44489 2.2983661619946361e-04</internalNodes>
      <leafValues>
        -6.3966703414916992e-01 2.8742313385009766e-01</leafValues></_>
    <_>
      <internalNodes>
        0 -1 42161 1.9077124306932092e-04</internalNodes>
      <leafValues>
        -6.3338989019393921e-01 2.5409889221191406e-01</leafValues></_>
    <_>
      <internalNodes>
        0 -1 43704 6.6728598903864622e-04</internalNodes>
      <leafValues>
        -5.2394366264343262e-01 2.9461413621902466e-01</leafValues></_>
    <_>
      <internalNodes>
        0 -1 60281 5.1890946924686432e-03</internalNodes>
      <leafValues>
        1.7317406833171844e-01 -8.5510390996932983e-01</leafValues></_></weakClassifiers></stage2>
</opencv_storage>
