<?xml version="1.0"?>
<opencv_storage>
<stage10>
  <maxWeakCount>14</maxWeakCount>
  <stageThreshold>-1.0929094552993774e+00</stageThreshold>
  <weakClassifiers>
    <_>
      <internalNodes>
        0 -1 56211 -1.4876774512231350e-02</internalNodes>
      <leafValues>
        5.8927667140960693e-01 -3.6652836203575134e-01</leafValues></_>
    <_>
      <internalNodes>
        0 -1 33426 2.0077919180039316e-04</internalNodes>
      <leafValues>
        -5.7430666685104370e-01 2.9658293724060059e-01</leafValues></_>
    <_>
      <internalNodes>
        0 -1 52982 7.9188914969563484e-03</internalNodes>
      <leafValues>
        -2.2661894559860229e-01 5.7369536161422729e-01</leafValues></_>
    <_>
      <internalNodes>
        0 -1 60899 1.4352523721754551e-02</internalNodes>
      <leafValues>
        -5.2803748846054077e-01 2.1321660280227661e-01</leafValues></_>
    <_>
      <internalNodes>
        0 -1 57693 2.3443622514605522e-02</internalNodes>
      <leafValues>
        1.6260334849357605e-01 -8.1167429685592651e-01</leafValues></_>
    <_>
      <internalNodes>
        0 -1 33161 -3.9456468075513840e-02</internalNodes>
      <leafValues>
        -9.6696984767913818e-01 6.2892630696296692e-02</leafValues></_>
    <_>
      <internalNodes>
        0 -1 56611 -4.0061526000499725e-02</internalNodes>
      <leafValues>
        -6.6372096538543701e-01 1.2529940903186798e-01</leafValues></_>
    <_>
      <internalNodes>
        0 -1 19876 1.0597701370716095e-01</internalNodes>
      <leafValues>
        1.2706312537193298e-01 -7.3065477609634399e-01</leafValues></_>
    <_>
      <internalNodes>
        0 -1 58368 -7.3468098416924477e-03</internalNodes>
      <leafValues>
        -7.0909053087234497e-01 1.3151869177818298e-01</leafValues></_>
    <_>
      <internalNodes>
        0 -1 67034 8.0492449342273176e-05</internalNodes>
      <leafValues>
        -3.8395753502845764e-01 2.7394363284111023e-01</leafValues></_>
    <_>
      <internalNodes>
        0 -1 52945 5.7287677191197872e-03</internalNodes>
      <leafValues>
        -2.0997928082942963e-01 6.2166535854339600e-01</leafValues></_>
    <_>
      <internalNodes>
        0 -1 59978 4.5876083895564079e-03</internalNodes>
      <leafValues>
        1.6071262955665588e-01 -8.7366408109664917e-01</leafValues></_>
    <_>
      <internalNodes>
        0 -1 57239 1.5455551329068840e-04</internalNodes>
      <leafValues>
        -5.1645243167877197e-01 1.7018093168735504e-01</leafValues></_>
    <_>
      <internalNodes>
        0 -1 63539 -2.9613208025693893e-02</internalNodes>
      <leafValues>
        -6.2305849790573120e-01 1.2595565617084503e-01</leafValues></_></weakClassifiers></stage10>
</opencv_storage>
