<?xml version="1.0"?>
<opencv_storage>
<stage6>
  <maxWeakCount>12</maxWeakCount>
  <stageThreshold>-1.1748191118240356e+00</stageThreshold>
  <weakClassifiers>
    <_>
      <internalNodes>
        0 -1 52043 3.5550940083339810e-04</internalNodes>
      <leafValues>
        -5.0704222917556763e-01 5.5722326040267944e-01</leafValues></_>
    <_>
      <internalNodes>
        0 -1 70483 1.5653148293495178e-02</internalNodes>
      <leafValues>
        -3.6295136809349060e-01 5.9603399038314819e-01</leafValues></_>
    <_>
      <internalNodes>
        0 -1 36273 3.3287522383034229e-03</internalNodes>
      <leafValues>
        -5.3292435407638550e-01 3.8633179664611816e-01</leafValues></_>
    <_>
      <internalNodes>
        0 -1 44781 -1.5904009342193604e-02</internalNodes>
      <leafValues>
        3.5767170786857605e-01 -4.7782248258590698e-01</leafValues></_>
    <_>
      <internalNodes>
        0 -1 38936 1.5589874237775803e-04</internalNodes>
      <leafValues>
        -8.2219099998474121e-01 1.9035585224628448e-01</leafValues></_>
    <_>
      <internalNodes>
        0 -1 58235 1.4024442061781883e-03</internalNodes>
      <leafValues>
        1.4209350943565369e-01 -8.5991442203521729e-01</leafValues></_>
    <_>
      <internalNodes>
        0 -1 65229 9.3075464246794581e-04</internalNodes>
      <leafValues>
        -5.9857529401779175e-01 2.0732261240482330e-01</leafValues></_>
    <_>
      <internalNodes>
        0 -1 56360 -8.8210491230711341e-04</internalNodes>
      <leafValues>
        2.2411930561065674e-01 -5.6940776109695435e-01</leafValues></_>
    <_>
      <internalNodes>
        0 -1 63859 6.2946419348008931e-05</internalNodes>
      <leafValues>
        -5.0327283143997192e-01 2.1187196671962738e-01</leafValues></_>
    <_>
      <internalNodes>
        0 -1 44489 1.8338198424316943e-04</internalNodes>
      <leafValues>
        -6.5846455097198486e-01 2.0823623239994049e-01</leafValues></_>
    <_>
      <internalNodes>
        0 -1 37609 -3.4784920513629913e-02</internalNodes>
      <leafValues>
        -9.1180306673049927e-01 1.1921726167201996e-01</leafValues></_>
    <_>
      <internalNodes>
        0 -1 32429 3.9725443348288536e-03</internalNodes>
      <leafValues>
        2.1114009618759155e-01 -6.5185576677322388e-01</leafValues></_></weakClassifiers></stage6>
</opencv_storage>
