<?xml version="1.0"?>
<opencv_storage>
<stage5>
  <maxWeakCount>10</maxWeakCount>
  <stageThreshold>-9.6422004699707031e-01</stageThreshold>
  <weakClassifiers>
    <_>
      <internalNodes>
        0 -1 66869 6.4875986427068710e-03</internalNodes>
      <leafValues>
        -3.9878788590431213e-01 6.5546667575836182e-01</leafValues></_>
    <_>
      <internalNodes>
        0 -1 32938 3.1832864624448121e-04</internalNodes>
      <leafValues>
        -6.7297953367233276e-01 3.5947200655937195e-01</leafValues></_>
    <_>
      <internalNodes>
        0 -1 47397 6.3250551465898752e-04</internalNodes>
      <leafValues>
        -5.6178665161132812e-01 3.6295732855796814e-01</leafValues></_>
    <_>
      <internalNodes>
        0 -1 48447 2.0574767142534256e-02</internalNodes>
      <leafValues>
        -7.0038348436355591e-01 2.0819374918937683e-01</leafValues></_>
    <_>
      <internalNodes>
        0 -1 43087 7.8358314931392670e-03</internalNodes>
      <leafValues>
        -7.6631242036819458e-01 1.8330436944961548e-01</leafValues></_>
    <_>
      <internalNodes>
        0 -1 42667 2.2200029343366623e-02</internalNodes>
      <leafValues>
        1.7359358072280884e-01 -7.8533470630645752e-01</leafValues></_>
    <_>
      <internalNodes>
        0 -1 71903 7.7052470296621323e-03</internalNodes>
      <leafValues>
        -3.0716529488563538e-01 5.3582674264907837e-01</leafValues></_>
    <_>
      <internalNodes>
        0 -1 57254 1.4366389252245426e-02</internalNodes>
      <leafValues>
        1.5391878783702850e-01 -9.0753668546676636e-01</leafValues></_>
    <_>
      <internalNodes>
        0 -1 60026 1.4995378442108631e-03</internalNodes>
      <leafValues>
        1.2813667953014374e-01 -8.9945030212402344e-01</leafValues></_>
    <_>
      <internalNodes>
        0 -1 59403 -3.1902953982353210e-02</internalNodes>
      <leafValues>
        -7.7915167808532715e-01 1.5422497689723969e-01</leafValues></_></weakClassifiers></stage5>
</opencv_storage>
