<?xml version="1.0"?>
<opencv_storage>
<stage3>
  <maxWeakCount>6</maxWeakCount>
  <stageThreshold>-7.4799960851669312e-01</stageThreshold>
  <weakClassifiers>
    <_>
      <internalNodes>
        0 -1 25436 3.8196577224880457e-03</internalNodes>
      <leafValues>
        -4.1336354613304138e-01 6.9620251655578613e-01</leafValues></_>
    <_>
      <internalNodes>
        0 -1 70350 1.9781215116381645e-02</internalNodes>
      <leafValues>
        -3.9345833659172058e-01 6.5987497568130493e-01</leafValues></_>
    <_>
      <internalNodes>
        0 -1 60255 5.5136952141765505e-05</internalNodes>
      <leafValues>
        -6.7143553495407104e-01 3.7112611532211304e-01</leafValues></_>
    <_>
      <internalNodes>
        0 -1 48447 1.2168750166893005e-02</internalNodes>
      <leafValues>
        -7.6590037345886230e-01 2.3734501004219055e-01</leafValues></_>
    <_>
      <internalNodes>
        0 -1 56356 -3.7963694194331765e-04</internalNodes>
      <leafValues>
        -7.3541456460952759e-01 2.4280622601509094e-01</leafValues></_>
    <_>
      <internalNodes>
        0 -1 39150 1.7582814325578511e-04</internalNodes>
      <leafValues>
        -7.2729390859603882e-01 2.1079032123088837e-01</leafValues></_></weakClassifiers></stage3>
</opencv_storage>
