<?xml version="1.0"?>
<opencv_storage>
<stage8>
  <maxWeakCount>12</maxWeakCount>
  <stageThreshold>-8.9276975393295288e-01</stageThreshold>
  <weakClassifiers>
    <_>
      <internalNodes>
        0 -1 74055 3.7083778530359268e-02</internalNodes>
      <leafValues>
        -1.1986001580953598e-01 6.6602438688278198e-01</leafValues></_>
    <_>
      <internalNodes>
        0 -1 61446 -2.0467757713049650e-03</internalNodes>
      <leafValues>
        5.5615764856338501e-01 -2.7379494905471802e-01</leafValues></_>
    <_>
      <internalNodes>
        0 -1 48067 -2.5514919310808182e-02</internalNodes>
      <leafValues>
        -7.9493618011474609e-01 2.0828124880790710e-01</leafValues></_>
    <_>
      <internalNodes>
        0 -1 38456 -3.8273510290309787e-04</internalNodes>
      <leafValues>
        -7.6655131578445435e-01 1.6172458231449127e-01</leafValues></_>
    <_>
      <internalNodes>
        0 -1 41800 1.0802889009937644e-03</internalNodes>
      <leafValues>
        -5.5424851179122925e-01 2.1457758545875549e-01</leafValues></_>
    <_>
      <internalNodes>
        0 -1 49527 -1.7884003464132547e-03</internalNodes>
      <leafValues>
        -8.7232458591461182e-01 1.2506401538848877e-01</leafValues></_>
    <_>
      <internalNodes>
        0 -1 70455 -4.6777137322351336e-04</internalNodes>
      <leafValues>
        2.0437653362751007e-01 -5.6327015161514282e-01</leafValues></_>
    <_>
      <internalNodes>
        0 -1 48105 3.1366482377052307e-02</internalNodes>
      <leafValues>
        1.0430771857500076e-01 -9.0314024686813354e-01</leafValues></_>
    <_>
      <internalNodes>
        0 -1 37225 2.4036120623350143e-02</internalNodes>
      <leafValues>
        1.3575859367847443e-01 -6.7714989185333252e-01</leafValues></_>
    <_>
      <internalNodes>
        0 -1 37275 -5.4382532835006714e-03</internalNodes>
      <leafValues>
        -8.2795423269271851e-01 1.3228626549243927e-01</leafValues></_>
    <_>
      <internalNodes>
        0 -1 71042 -1.2526826467365026e-03</internalNodes>
      <leafValues>
        2.7606362104415894e-01 -3.9021453261375427e-01</leafValues></_>
    <_>
      <internalNodes>
        0 -1 49679 -2.2668105084449053e-03</internalNodes>
      <leafValues>
        4.0319377183914185e-01 -2.8019234538078308e-01</leafValues></_></weakClassifiers></stage8>
</opencv_storage>
