<?xml version="1.0"?>
<opencv_storage>
<stage7>
  <maxWeakCount>12</maxWeakCount>
  <stageThreshold>-1.1359339952468872e+00</stageThreshold>
  <weakClassifiers>
    <_>
      <internalNodes>
        0 -1 51264 1.8038345733657479e-03</internalNodes>
      <leafValues>
        -4.2589703202247620e-01 5.6969404220581055e-01</leafValues></_>
    <_>
      <internalNodes>
        0 -1 67514 8.2535436376929283e-03</internalNodes>
      <leafValues>
        -5.4471814632415771e-01 3.6050137877464294e-01</leafValues></_>
    <_>
      <internalNodes>
        0 -1 51994 4.5453027269104496e-05</internalNodes>
      <leafValues>
        -5.8991909027099609e-01 2.9231065511703491e-01</leafValues></_>
    <_>
      <internalNodes>
        0 -1 26462 8.9528388343751431e-04</internalNodes>
      <leafValues>
        -4.8476541042327881e-01 3.0164620280265808e-01</leafValues></_>
    <_>
      <internalNodes>
        0 -1 44096 -4.0321075357496738e-04</internalNodes>
      <leafValues>
        -7.5221830606460571e-01 1.6428123414516449e-01</leafValues></_>
    <_>
      <internalNodes>
        0 -1 62230 -6.6660083830356598e-03</internalNodes>
      <leafValues>
        4.0733501315116882e-01 -3.4631237387657166e-01</leafValues></_>
    <_>
      <internalNodes>
        0 -1 72938 -1.5708510181866586e-04</internalNodes>
      <leafValues>
        -6.4902365207672119e-01 1.9932928681373596e-01</leafValues></_>
    <_>
      <internalNodes>
        0 -1 43547 7.4146445840597153e-03</internalNodes>
      <leafValues>
        7.5787290930747986e-02 -9.1787290573120117e-01</leafValues></_>
    <_>
      <internalNodes>
        0 -1 73051 -7.1763439336791635e-05</internalNodes>
      <leafValues>
        -6.0896944999694824e-01 1.8079422414302826e-01</leafValues></_>
    <_>
      <internalNodes>
        0 -1 38695 9.1322406660765409e-05</internalNodes>
      <leafValues>
        -6.5705293416976929e-01 1.6934262216091156e-01</leafValues></_>
    <_>
      <internalNodes>
        0 -1 32087 -4.1942591778934002e-03</internalNodes>
      <leafValues>
        2.2677759826183319e-01 -5.3368109464645386e-01</leafValues></_>
    <_>
      <internalNodes>
        0 -1 42414 9.7197994589805603e-02</internalNodes>
      <leafValues>
        1.8249924480915070e-01 -7.9135298728942871e-01</leafValues></_></weakClassifiers></stage7>
</opencv_storage>
